digraph Tree {
0 [label="X[10] <= 0.1982\ngini = 0.497500255076\nsamples = 128", shape="box"] ;
1 [label="X[19] <= 0.8427\ngini = 0.265118040651\nsamples = 57", shape="box"] ;
0 -> 1 ;
2 [label="X[11] <= 0.2382\ngini = 0.132653061224\nsamples = 46", shape="box"] ;
1 -> 2 ;
3 [label="X[52] <= 0.0263\ngini = 0.060546875\nsamples = 40", shape="box"] ;
2 -> 3 ;
4 [label="X[7] <= 0.0170\ngini = 0.0312421264802\nsamples = 39", shape="box"] ;
3 -> 4 ;
5 [label="gini = 0.0000\nsamples = 1\nvalue = [ 0.  1.]", shape="box"] ;
4 -> 5 ;
6 [label="gini = 0.0000\nsamples = 38\nvalue = [ 62.   0.]", shape="box"] ;
4 -> 6 ;
7 [label="gini = 0.0000\nsamples = 1\nvalue = [ 0.  1.]", shape="box"] ;
3 -> 7 ;
8 [label="X[44] <= 0.1605\ngini = 0.5\nsamples = 6", shape="box"] ;
2 -> 8 ;
9 [label="gini = 0.0000\nsamples = 2\nvalue = [ 2.  0.]", shape="box"] ;
8 -> 9 ;
10 [label="X[32] <= 0.3685\ngini = 0.375\nsamples = 4", shape="box"] ;
8 -> 10 ;
11 [label="gini = 0.0000\nsamples = 3\nvalue = [ 0.  3.]", shape="box"] ;
10 -> 11 ;
12 [label="gini = 0.0000\nsamples = 1\nvalue = [ 1.  0.]", shape="box"] ;
10 -> 12 ;
13 [label="X[20] <= 0.9645\ngini = 0.498614958449\nsamples = 11", shape="box"] ;
1 -> 13 ;
14 [label="X[43] <= 0.1324\ngini = 0.375\nsamples = 7", shape="box"] ;
13 -> 14 ;
15 [label="gini = 0.0000\nsamples = 2\nvalue = [ 3.  0.]", shape="box"] ;
14 -> 15 ;
16 [label="gini = 0.0000\nsamples = 5\nvalue = [ 0.  9.]", shape="box"] ;
14 -> 16 ;
17 [label="gini = 0.0000\nsamples = 4\nvalue = [ 7.  0.]", shape="box"] ;
13 -> 17 ;
18 [label="X[28] <= 0.7011\ngini = 0.407036444744\nsamples = 71", shape="box"] ;
0 -> 18 ;
19 [label="X[55] <= 0.0104\ngini = 0.495317377732\nsamples = 42", shape="box"] ;
18 -> 19 ;
20 [label="X[40] <= 0.2612\ngini = 0.488909008601\nsamples = 30", shape="box"] ;
19 -> 20 ;
21 [label="X[53] <= 0.0078\ngini = 0.387811634349\nsamples = 14", shape="box"] ;
20 -> 21 ;
22 [label="X[24] <= 0.3246\ngini = 0.32\nsamples = 5", shape="box"] ;
21 -> 22 ;
23 [label="gini = 0.0000\nsamples = 1\nvalue = [ 0.  1.]", shape="box"] ;
22 -> 23 ;
24 [label="gini = 0.0000\nsamples = 4\nvalue = [ 4.  0.]", shape="box"] ;
22 -> 24 ;
25 [label="X[20] <= 0.5877\ngini = 0.132653061224\nsamples = 9", shape="box"] ;
21 -> 25 ;
26 [label="gini = 0.0000\nsamples = 1\nvalue = [ 1.  0.]", shape="box"] ;
25 -> 26 ;
27 [label="gini = 0.0000\nsamples = 8\nvalue = [  0.  13.]", shape="box"] ;
25 -> 27 ;
28 [label="X[15] <= 0.3058\ngini = 0.336734693878\nsamples = 16", shape="box"] ;
20 -> 28 ;
29 [label="X[2] <= 0.0505\ngini = 0.408163265306\nsamples = 6", shape="box"] ;
28 -> 29 ;
30 [label="gini = 0.0000\nsamples = 4\nvalue = [ 0.  5.]", shape="box"] ;
29 -> 30 ;
31 [label="gini = 0.0000\nsamples = 2\nvalue = [ 2.  0.]", shape="box"] ;
29 -> 31 ;
32 [label="X[22] <= 0.8319\ngini = 0.0907029478458\nsamples = 10", shape="box"] ;
28 -> 32 ;
33 [label="gini = 0.0000\nsamples = 8\nvalue = [ 19.   0.]", shape="box"] ;
32 -> 33 ;
34 [label="X[51] <= 0.0159\ngini = 0.5\nsamples = 2", shape="box"] ;
32 -> 34 ;
35 [label="gini = 0.0000\nsamples = 1\nvalue = [ 0.  1.]", shape="box"] ;
34 -> 35 ;
36 [label="gini = 0.0000\nsamples = 1\nvalue = [ 1.  0.]", shape="box"] ;
34 -> 36 ;
37 [label="X[25] <= 0.2626\ngini = 0.124444444444\nsamples = 12", shape="box"] ;
19 -> 37 ;
38 [label="X[2] <= 0.1183\ngini = 0.5\nsamples = 2", shape="box"] ;
37 -> 38 ;
39 [label="gini = 0.0000\nsamples = 1\nvalue = [ 1.  0.]", shape="box"] ;
38 -> 39 ;
40 [label="gini = 0.0000\nsamples = 1\nvalue = [ 0.  1.]", shape="box"] ;
38 -> 40 ;
41 [label="gini = 0.0000\nsamples = 10\nvalue = [  0.  13.]", shape="box"] ;
37 -> 41 ;
42 [label="X[23] <= 0.3307\ngini = 0.119511090991\nsamples = 29", shape="box"] ;
18 -> 42 ;
43 [label="X[18] <= 0.2722\ngini = 0.444444444444\nsamples = 2", shape="box"] ;
42 -> 43 ;
44 [label="gini = 0.0000\nsamples = 1\nvalue = [ 2.  0.]", shape="box"] ;
43 -> 44 ;
45 [label="gini = 0.0000\nsamples = 1\nvalue = [ 0.  1.]", shape="box"] ;
43 -> 45 ;
46 [label="X[18] <= 0.8546\ngini = 0.0444214876033\nsamples = 27", shape="box"] ;
42 -> 46 ;
47 [label="gini = 0.0000\nsamples = 26\nvalue = [  0.  43.]", shape="box"] ;
46 -> 47 ;
48 [label="gini = 0.0000\nsamples = 1\nvalue = [ 1.  0.]", shape="box"] ;
46 -> 48 ;
}